{
  "layers": [
    {
      "inputSize": 2,
      "outputSize": 2,
      "activation": "Tanh",
      "bias": [
        -30.98422534089932,
        -7.683152650992067
      ],
      "weight": [
        [
          -5.563198001521196,
          14.421877439121872
        ],
        [
          -21.915589057614575,
          23.008782219801308
        ]
      ]
    },
    {
      "inputSize": 2,
      "outputSize": 5,
      "activation": "Tanh",
      "bias": [
        11.6639669351148,
        46.06730272233276,
        -9.654183975000768,
        4.638649492838486,
        -18.315648506433867
      ],
      "weight": [
        [
          1.971001939817602,
          -19.884500346695887
        ],
        [
          17.68918552464172,
          25.17583537559793
        ],
        [
          17.339457743305466,
          4.25861373602825
        ],
        [
          19.593472321700443,
          24.54536473609756
        ],
        [
          -7.18554138995207,
          -10.127896613282703
        ]
      ]
    },
    {
      "inputSize": 5,
      "outputSize": 3,
      "activation": "Tanh",
      "bias": [
        -1.3367347384224266,
        3.648067034994662,
        -22.63270882549222
      ],
      "weight": [
        [
          -38.36863935286789,
          15.727695498430158,
          -19.28477825061904,
          -25.566071098693424,
          48.346509954676435
        ],
        [
          -25.59389336679914,
          -20.620028458287123,
          -16.63244846776219,
          -8.853507921961565,
          39.06419469081165
        ],
        [
          9.436380524846912,
          -18.12882703202701,
          -2.5040027399317655,
          -15.314536523808881,
          -24.053406160579254
        ]
      ]
    },
    {
      "inputSize": 3,
      "outputSize": 6,
      "activation": "Tanh",
      "bias": [
        16.55285821912887,
        12.41296842440934,
        14.639729741575358,
        -19.110580397765293,
        12.866528359647933,
        -4.169447211401893
      ],
      "weight": [
        [
          -13.674324188643006,
          4.692215135031377,
          -16.259044901424136
        ],
        [
          -4.215965744459883,
          39.72254452137416,
          -12.900221844290275
        ],
        [
          -4.762292193642725,
          -12.256826448844226,
          9.155287051169788
        ],
        [
          -9.620449844822899,
          -10.064954134710534,
          37.0106311406517
        ],
        [
          24.03170794078006,
          5.497959320135971,
          14.369997074528813
        ],
        [
          -14.204076751812384,
          -8.817179834470535,
          11.123859027225068
        ]
      ]
    },
    {
      "inputSize": 6,
      "outputSize": 1,
      "activation": "Normalize",
      "bias": [
        17.03637433812915
      ],
      "weight": [
        [
          -13.689302163571774,
          19.148568982497153,
          -3.690085043313264,
          -34.76512734826653,
          -9.540498724106772,
          -23.49279497109307
        ]
      ]
    }
  ]
}