[
  {
    "layers": [
      {
        "inputSize": 2,
        "outputSize": 5,
        "activation": "Tanh",
        "bias": [
          3.291787627698835,
          -3.4773350330264097,
          1.411107550285121,
          -7.746618727266175,
          2.5819552044107272
        ],
        "weight": [
          [
            -0.9671591629225196,
            0.0867963121048021
          ],
          [
            -0.7392027016120924,
            1.7916805096489412
          ],
          [
            3.4693661580999877,
            -0.32314079167058674
          ],
          [
            -0.8840935047513981,
            -0.8924003521372501
          ],
          [
            3.88235342001799,
            0.8924568570310225
          ]
        ]
      },
      {
        "inputSize": 5,
        "outputSize": 4,
        "activation": "Tanh",
        "bias": [
          3.687941445363604,
          -0.9096611474071419,
          2.641385088721697,
          -2.9512358532094582
        ],
        "weight": [
          [
            3.7640515766640426,
            -1.3421863587278489,
            2.8149564699889105,
            5.458927750425904,
            1.9949864448810453
          ],
          [
            0.507878477929963,
            -4.815436083805061,
            2.2033560775955556,
            2.9345170385818644,
            0.7776495328846793
          ],
          [
            -3.4777603104926693,
            1.5044795617716564,
            2.4154897584442323,
            -0.18682741675416992,
            -3.819793282898278
          ],
          [
            -2.622978967232658,
            -0.366357400414139,
            -4.888933195906257,
            -1.383954895683405,
            4.878863214785529
          ]
        ]
      },
      {
        "inputSize": 4,
        "outputSize": 5,
        "activation": "Tanh",
        "bias": [
          1.8618639036053484,
          3.7418931159086286,
          1.8895592625120554,
          -2.49944510225551,
          -5.541796218579798
        ],
        "weight": [
          [
            1.8116925512802713,
            -2.141619768992367,
            -4.608672799482788,
            4.116258634790785
          ],
          [
            8.158551983610923,
            -5.780752858258237,
            -1.9060080710251897,
            1.9720639042573862
          ],
          [
            3.135713957013826,
            4.405254439887313,
            -3.5934408843648953,
            0.06304079273446661
          ],
          [
            5.488029271365313,
            -6.544688750264581,
            -3.2839840663437827,
            -2.1800778787169364
          ],
          [
            -3.206809759881675,
            1.1596616874223884,
            4.510708517096618,
            1.8783066300871085
          ]
        ]
      },
      {
        "inputSize": 5,
        "outputSize": 3,
        "activation": "Tanh",
        "bias": [
          0.6917146687442997,
          -1.916099947636235,
          -3.0078095070006174
        ],
        "weight": [
          [
            -1.4210405094769416,
            3.560513712680685,
            2.9552765944630774,
            1.7724539609948575,
            -3.025233004043056
          ],
          [
            -5.587512133006043,
            5.653242149842737,
            0.506251901215028,
            1.5323326511248379,
            7.3737231481464525
          ],
          [
            -3.256095221478555,
            5.033186111036629,
            -3.8179957304571337,
            3.5430325624346084,
            -2.1844691568297314
          ]
        ]
      },
      {
        "inputSize": 3,
        "outputSize": 1,
        "activation": "Tanh",
        "bias": [
          2.0883173608929395
        ],
        "weight": [
          [
            -0.5549345974010582,
            -4.496580797564703,
            -5.225299471543597
          ]
        ]
      }
    ]
  },
  {
    "layers": [
      {
        "inputSize": 2,
        "outputSize": 5,
        "activation": "Tanh",
        "bias": [
          3.291787627698835,
          -3.4773350330264097,
          1.411107550285121,
          -7.746618727266175,
          2.5819552044107272
        ],
        "weight": [
          [
            -0.9671591629225196,
            0.0867963121048021
          ],
          [
            -0.7392027016120924,
            1.7916805096489412
          ],
          [
            3.4693661580999877,
            -0.32314079167058674
          ],
          [
            -0.8840935047513981,
            -0.8924003521372501
          ],
          [
            3.88235342001799,
            0.8924568570310225
          ]
        ]
      },
      {
        "inputSize": 5,
        "outputSize": 4,
        "activation": "Tanh",
        "bias": [
          3.687941445363604,
          -0.9096611474071419,
          2.641385088721697,
          -2.9512358532094582
        ],
        "weight": [
          [
            3.7640515766640426,
            -1.3421863587278489,
            2.8149564699889105,
            5.458927750425904,
            1.9949864448810453
          ],
          [
            0.507878477929963,
            -4.815436083805061,
            2.2033560775955556,
            2.9345170385818644,
            0.7776495328846793
          ],
          [
            -3.4777603104926693,
            1.5044795617716564,
            2.4154897584442323,
            -0.18682741675416992,
            -3.819793282898278
          ],
          [
            -2.622978967232658,
            -0.366357400414139,
            -4.888933195906257,
            -1.383954895683405,
            4.878863214785529
          ]
        ]
      },
      {
        "inputSize": 4,
        "outputSize": 5,
        "activation": "Tanh",
        "bias": [
          1.8618639036053484,
          3.7418931159086286,
          1.8895592625120554,
          -2.49944510225551,
          -5.541796218579798
        ],
        "weight": [
          [
            1.8116925512802713,
            -2.141619768992367,
            -4.608672799482788,
            4.116258634790785
          ],
          [
            8.158551983610923,
            -5.780752858258237,
            -1.9060080710251897,
            1.9720639042573862
          ],
          [
            3.135713957013826,
            4.405254439887313,
            -3.5934408843648953,
            0.06304079273446661
          ],
          [
            5.488029271365313,
            -6.544688750264581,
            -3.2839840663437827,
            -2.1800778787169364
          ],
          [
            -3.206809759881675,
            1.1596616874223884,
            4.510708517096618,
            1.8783066300871085
          ]
        ]
      },
      {
        "inputSize": 5,
        "outputSize": 3,
        "activation": "Tanh",
        "bias": [
          0.6917146687442997,
          -1.916099947636235,
          -3.0078095070006174
        ],
        "weight": [
          [
            -1.4210405094769416,
            3.560513712680685,
            2.9552765944630774,
            1.7724539609948575,
            -3.025233004043056
          ],
          [
            -5.587512133006043,
            5.653242149842737,
            0.506251901215028,
            1.5323326511248379,
            7.3737231481464525
          ],
          [
            -3.256095221478555,
            5.033186111036629,
            -3.8179957304571337,
            3.5430325624346084,
            -2.1844691568297314
          ]
        ]
      },
      {
        "inputSize": 3,
        "outputSize": 1,
        "activation": "Tanh",
        "bias": [
          2.0883173608929395
        ],
        "weight": [
          [
            -0.5549345974010582,
            -4.496580797564703,
            -5.225299471543597
          ]
        ]
      }
    ]
  },
  {
    "layers": [
      {
        "inputSize": 2,
        "outputSize": 5,
        "activation": "Tanh",
        "bias": [
          3.291787627698835,
          -3.4773350330264097,
          1.411107550285121,
          -7.746618727266175,
          2.5819552044107272
        ],
        "weight": [
          [
            -0.9671591629225196,
            0.0867963121048021
          ],
          [
            -0.7392027016120924,
            1.7916805096489412
          ],
          [
            3.4693661580999877,
            -0.32314079167058674
          ],
          [
            -0.8840935047513981,
            -0.8924003521372501
          ],
          [
            3.88235342001799,
            0.8924568570310225
          ]
        ]
      },
      {
        "inputSize": 5,
        "outputSize": 4,
        "activation": "Tanh",
        "bias": [
          3.687941445363604,
          -0.9096611474071419,
          2.641385088721697,
          -2.9512358532094582
        ],
        "weight": [
          [
            3.7640515766640426,
            -1.3421863587278489,
            2.8149564699889105,
            5.458927750425904,
            1.9949864448810453
          ],
          [
            0.507878477929963,
            -4.815436083805061,
            2.2033560775955556,
            2.9345170385818644,
            0.7776495328846793
          ],
          [
            -3.4777603104926693,
            1.5044795617716564,
            2.4154897584442323,
            -0.18682741675416992,
            -3.819793282898278
          ],
          [
            -2.622978967232658,
            -0.366357400414139,
            -4.888933195906257,
            -1.383954895683405,
            4.878863214785529
          ]
        ]
      },
      {
        "inputSize": 4,
        "outputSize": 5,
        "activation": "Tanh",
        "bias": [
          1.8618639036053484,
          3.7418931159086286,
          1.8895592625120554,
          -2.49944510225551,
          -5.541796218579798
        ],
        "weight": [
          [
            1.8116925512802713,
            -2.141619768992367,
            -4.608672799482788,
            4.116258634790785
          ],
          [
            8.158551983610923,
            -5.780752858258237,
            -1.9060080710251897,
            1.9720639042573862
          ],
          [
            3.135713957013826,
            4.405254439887313,
            -3.5934408843648953,
            0.06304079273446661
          ],
          [
            5.488029271365313,
            -6.544688750264581,
            -3.2839840663437827,
            -2.1800778787169364
          ],
          [
            -3.206809759881675,
            1.1596616874223884,
            4.510708517096618,
            1.8783066300871085
          ]
        ]
      },
      {
        "inputSize": 5,
        "outputSize": 3,
        "activation": "Tanh",
        "bias": [
          0.6917146687442997,
          -1.916099947636235,
          -3.0078095070006174
        ],
        "weight": [
          [
            -1.4210405094769416,
            3.560513712680685,
            2.9552765944630774,
            1.7724539609948575,
            -3.025233004043056
          ],
          [
            -5.587512133006043,
            5.653242149842737,
            0.506251901215028,
            1.5323326511248379,
            7.3737231481464525
          ],
          [
            -3.256095221478555,
            5.033186111036629,
            -3.8179957304571337,
            3.5430325624346084,
            -2.1844691568297314
          ]
        ]
      },
      {
        "inputSize": 3,
        "outputSize": 1,
        "activation": "Tanh",
        "bias": [
          2.0883173608929395
        ],
        "weight": [
          [
            -0.5549345974010582,
            -4.496580797564703,
            -5.225299471543597
          ]
        ]
      }
    ]
  },
  {
    "layers": [
      {
        "inputSize": 2,
        "outputSize": 5,
        "activation": "Tanh",
        "bias": [
          3.291787627698835,
          -3.4773350330264097,
          1.411107550285121,
          -7.746618727266175,
          2.5819552044107272
        ],
        "weight": [
          [
            -0.9671591629225196,
            0.0867963121048021
          ],
          [
            -0.7392027016120924,
            1.7916805096489412
          ],
          [
            3.4693661580999877,
            -0.32314079167058674
          ],
          [
            -0.8840935047513981,
            -0.8924003521372501
          ],
          [
            3.88235342001799,
            0.8924568570310225
          ]
        ]
      },
      {
        "inputSize": 5,
        "outputSize": 4,
        "activation": "Tanh",
        "bias": [
          3.687941445363604,
          -0.9096611474071419,
          2.641385088721697,
          -2.9512358532094582
        ],
        "weight": [
          [
            3.7640515766640426,
            -1.3421863587278489,
            2.8149564699889105,
            5.458927750425904,
            1.9949864448810453
          ],
          [
            0.507878477929963,
            -4.815436083805061,
            2.2033560775955556,
            2.9345170385818644,
            0.7776495328846793
          ],
          [
            -3.4777603104926693,
            1.5044795617716564,
            2.4154897584442323,
            -0.18682741675416992,
            -3.819793282898278
          ],
          [
            -2.622978967232658,
            -0.366357400414139,
            -4.888933195906257,
            -1.383954895683405,
            4.878863214785529
          ]
        ]
      },
      {
        "inputSize": 4,
        "outputSize": 5,
        "activation": "Tanh",
        "bias": [
          1.8618639036053484,
          3.7418931159086286,
          1.8895592625120554,
          -2.49944510225551,
          -5.541796218579798
        ],
        "weight": [
          [
            1.8116925512802713,
            -2.141619768992367,
            -4.608672799482788,
            4.116258634790785
          ],
          [
            8.158551983610923,
            -5.780752858258237,
            -1.9060080710251897,
            1.9720639042573862
          ],
          [
            3.135713957013826,
            4.405254439887313,
            -3.5934408843648953,
            0.06304079273446661
          ],
          [
            5.488029271365313,
            -6.544688750264581,
            -3.2839840663437827,
            -2.1800778787169364
          ],
          [
            -3.206809759881675,
            1.1596616874223884,
            4.510708517096618,
            1.8783066300871085
          ]
        ]
      },
      {
        "inputSize": 5,
        "outputSize": 3,
        "activation": "Tanh",
        "bias": [
          0.6917146687442997,
          -1.916099947636235,
          -3.0078095070006174
        ],
        "weight": [
          [
            -1.4210405094769416,
            3.560513712680685,
            2.9552765944630774,
            1.7724539609948575,
            -3.025233004043056
          ],
          [
            -5.587512133006043,
            5.653242149842737,
            0.506251901215028,
            1.5323326511248379,
            7.3737231481464525
          ],
          [
            -3.256095221478555,
            5.033186111036629,
            -3.8179957304571337,
            3.5430325624346084,
            -2.1844691568297314
          ]
        ]
      },
      {
        "inputSize": 3,
        "outputSize": 1,
        "activation": "Tanh",
        "bias": [
          2.0883173608929395
        ],
        "weight": [
          [
            -0.5549345974010582,
            -4.496580797564703,
            -5.225299471543597
          ]
        ]
      }
    ]
  },
  {
    "layers": [
      {
        "inputSize": 2,
        "outputSize": 5,
        "activation": "Tanh",
        "bias": [
          3.291787627698835,
          -3.4773350330264097,
          1.411107550285121,
          -7.746618727266175,
          2.5819552044107272
        ],
        "weight": [
          [
            -0.9671591629225196,
            0.0867963121048021
          ],
          [
            -0.7392027016120924,
            1.7916805096489412
          ],
          [
            3.4693661580999877,
            -0.32314079167058674
          ],
          [
            -0.8840935047513981,
            -0.8924003521372501
          ],
          [
            3.88235342001799,
            0.8924568570310225
          ]
        ]
      },
      {
        "inputSize": 5,
        "outputSize": 4,
        "activation": "Tanh",
        "bias": [
          3.687941445363604,
          -0.9096611474071419,
          2.641385088721697,
          -2.9512358532094582
        ],
        "weight": [
          [
            3.7640515766640426,
            -1.3421863587278489,
            2.8149564699889105,
            5.458927750425904,
            1.9949864448810453
          ],
          [
            0.507878477929963,
            -4.815436083805061,
            2.2033560775955556,
            2.9345170385818644,
            0.7776495328846793
          ],
          [
            -3.4777603104926693,
            1.5044795617716564,
            2.4154897584442323,
            -0.18682741675416992,
            -3.819793282898278
          ],
          [
            -2.622978967232658,
            -0.366357400414139,
            -4.888933195906257,
            -1.383954895683405,
            4.878863214785529
          ]
        ]
      },
      {
        "inputSize": 4,
        "outputSize": 5,
        "activation": "Tanh",
        "bias": [
          1.8618639036053484,
          3.7418931159086286,
          1.8895592625120554,
          -2.49944510225551,
          -5.541796218579798
        ],
        "weight": [
          [
            1.8116925512802713,
            -2.141619768992367,
            -4.608672799482788,
            4.116258634790785
          ],
          [
            8.158551983610923,
            -5.780752858258237,
            -1.9060080710251897,
            1.9720639042573862
          ],
          [
            3.135713957013826,
            4.405254439887313,
            -3.5934408843648953,
            0.06304079273446661
          ],
          [
            5.488029271365313,
            -6.544688750264581,
            -3.2839840663437827,
            -2.1800778787169364
          ],
          [
            -3.206809759881675,
            1.1596616874223884,
            4.510708517096618,
            1.8783066300871085
          ]
        ]
      },
      {
        "inputSize": 5,
        "outputSize": 3,
        "activation": "Tanh",
        "bias": [
          0.6917146687442997,
          -1.916099947636235,
          -3.0078095070006174
        ],
        "weight": [
          [
            -1.4210405094769416,
            3.560513712680685,
            2.9552765944630774,
            1.7724539609948575,
            -3.025233004043056
          ],
          [
            -5.587512133006043,
            5.653242149842737,
            0.506251901215028,
            1.5323326511248379,
            7.3737231481464525
          ],
          [
            -3.256095221478555,
            5.033186111036629,
            -3.8179957304571337,
            3.5430325624346084,
            -2.1844691568297314
          ]
        ]
      },
      {
        "inputSize": 3,
        "outputSize": 1,
        "activation": "Tanh",
        "bias": [
          2.0883173608929395
        ],
        "weight": [
          [
            -0.5549345974010582,
            -4.496580797564703,
            -5.225299471543597
          ]
        ]
      }
    ]
  },
  {
    "layers": [
      {
        "inputSize": 2,
        "outputSize": 5,
        "activation": "Tanh",
        "bias": [
          3.291787627698835,
          -3.4773350330264097,
          1.411107550285121,
          -7.746618727266175,
          2.5819552044107272
        ],
        "weight": [
          [
            -0.9671591629225196,
            0.0867963121048021
          ],
          [
            -0.7392027016120924,
            1.7916805096489412
          ],
          [
            3.4693661580999877,
            -0.32314079167058674
          ],
          [
            -0.8840935047513981,
            -0.8924003521372501
          ],
          [
            3.88235342001799,
            0.8924568570310225
          ]
        ]
      },
      {
        "inputSize": 5,
        "outputSize": 4,
        "activation": "Tanh",
        "bias": [
          3.687941445363604,
          -0.9096611474071419,
          2.641385088721697,
          -2.9512358532094582
        ],
        "weight": [
          [
            3.7640515766640426,
            -1.3421863587278489,
            2.8149564699889105,
            5.458927750425904,
            1.9949864448810453
          ],
          [
            0.507878477929963,
            -4.815436083805061,
            2.2033560775955556,
            2.9345170385818644,
            0.7776495328846793
          ],
          [
            -3.4777603104926693,
            1.5044795617716564,
            2.4154897584442323,
            -0.18682741675416992,
            -3.819793282898278
          ],
          [
            -2.622978967232658,
            -0.366357400414139,
            -4.888933195906257,
            -1.383954895683405,
            4.878863214785529
          ]
        ]
      },
      {
        "inputSize": 4,
        "outputSize": 5,
        "activation": "Tanh",
        "bias": [
          1.8618639036053484,
          3.7418931159086286,
          1.8895592625120554,
          -2.49944510225551,
          -5.541796218579798
        ],
        "weight": [
          [
            1.8116925512802713,
            -2.141619768992367,
            -4.608672799482788,
            4.116258634790785
          ],
          [
            8.158551983610923,
            -5.780752858258237,
            -1.9060080710251897,
            1.9720639042573862
          ],
          [
            3.135713957013826,
            4.405254439887313,
            -3.5934408843648953,
            0.06304079273446661
          ],
          [
            5.488029271365313,
            -6.544688750264581,
            -3.2839840663437827,
            -2.1800778787169364
          ],
          [
            -3.206809759881675,
            1.1596616874223884,
            4.510708517096618,
            1.8783066300871085
          ]
        ]
      },
      {
        "inputSize": 5,
        "outputSize": 3,
        "activation": "Tanh",
        "bias": [
          0.6917146687442997,
          -1.916099947636235,
          -3.0078095070006174
        ],
        "weight": [
          [
            -1.4210405094769416,
            3.560513712680685,
            2.9552765944630774,
            1.7724539609948575,
            -3.025233004043056
          ],
          [
            -5.587512133006043,
            5.653242149842737,
            0.506251901215028,
            1.5323326511248379,
            7.3737231481464525
          ],
          [
            -3.256095221478555,
            5.033186111036629,
            -3.8179957304571337,
            3.5430325624346084,
            -2.1844691568297314
          ]
        ]
      },
      {
        "inputSize": 3,
        "outputSize": 1,
        "activation": "Tanh",
        "bias": [
          2.0883173608929395
        ],
        "weight": [
          [
            -0.5549345974010582,
            -4.496580797564703,
            -5.225299471543597
          ]
        ]
      }
    ]
  },
  {
    "layers": [
      {
        "inputSize": 2,
        "outputSize": 5,
        "activation": "Tanh",
        "bias": [
          3.291787627698835,
          -3.4773350330264097,
          1.411107550285121,
          -7.746618727266175,
          2.5819552044107272
        ],
        "weight": [
          [
            -0.9671591629225196,
            0.0867963121048021
          ],
          [
            -0.7392027016120924,
            1.7916805096489412
          ],
          [
            3.4693661580999877,
            -0.32314079167058674
          ],
          [
            -0.8840935047513981,
            -0.8924003521372501
          ],
          [
            3.88235342001799,
            0.8924568570310225
          ]
        ]
      },
      {
        "inputSize": 5,
        "outputSize": 4,
        "activation": "Tanh",
        "bias": [
          3.687941445363604,
          -0.9096611474071419,
          2.641385088721697,
          -2.9512358532094582
        ],
        "weight": [
          [
            3.7640515766640426,
            -1.3421863587278489,
            2.8149564699889105,
            5.458927750425904,
            1.9949864448810453
          ],
          [
            0.507878477929963,
            -4.815436083805061,
            2.2033560775955556,
            2.9345170385818644,
            0.7776495328846793
          ],
          [
            -3.4777603104926693,
            1.5044795617716564,
            2.4154897584442323,
            -0.18682741675416992,
            -3.819793282898278
          ],
          [
            -2.622978967232658,
            -0.366357400414139,
            -4.888933195906257,
            -1.383954895683405,
            4.878863214785529
          ]
        ]
      },
      {
        "inputSize": 4,
        "outputSize": 5,
        "activation": "Tanh",
        "bias": [
          1.8618639036053484,
          3.7418931159086286,
          1.8895592625120554,
          -2.49944510225551,
          -5.541796218579798
        ],
        "weight": [
          [
            1.8116925512802713,
            -2.141619768992367,
            -4.608672799482788,
            4.116258634790785
          ],
          [
            8.158551983610923,
            -5.780752858258237,
            -1.9060080710251897,
            1.9720639042573862
          ],
          [
            3.135713957013826,
            4.405254439887313,
            -3.5934408843648953,
            0.06304079273446661
          ],
          [
            5.488029271365313,
            -6.544688750264581,
            -3.2839840663437827,
            -2.1800778787169364
          ],
          [
            -3.206809759881675,
            1.1596616874223884,
            4.510708517096618,
            1.8783066300871085
          ]
        ]
      },
      {
        "inputSize": 5,
        "outputSize": 3,
        "activation": "Tanh",
        "bias": [
          0.6917146687442997,
          -1.916099947636235,
          -3.0078095070006174
        ],
        "weight": [
          [
            -1.4210405094769416,
            3.560513712680685,
            2.9552765944630774,
            1.7724539609948575,
            -3.025233004043056
          ],
          [
            -5.587512133006043,
            5.653242149842737,
            0.506251901215028,
            1.5323326511248379,
            7.3737231481464525
          ],
          [
            -3.256095221478555,
            5.033186111036629,
            -3.8179957304571337,
            3.5430325624346084,
            -2.1844691568297314
          ]
        ]
      },
      {
        "inputSize": 3,
        "outputSize": 1,
        "activation": "Tanh",
        "bias": [
          2.0883173608929395
        ],
        "weight": [
          [
            -0.5549345974010582,
            -4.496580797564703,
            -5.225299471543597
          ]
        ]
      }
    ]
  },
  {
    "layers": [
      {
        "inputSize": 2,
        "outputSize": 5,
        "activation": "Tanh",
        "bias": [
          3.291787627698835,
          -3.4773350330264097,
          1.411107550285121,
          -7.746618727266175,
          2.5819552044107272
        ],
        "weight": [
          [
            -0.9671591629225196,
            0.0867963121048021
          ],
          [
            -0.7392027016120924,
            1.7916805096489412
          ],
          [
            3.4693661580999877,
            -0.32314079167058674
          ],
          [
            -0.8840935047513981,
            -0.8924003521372501
          ],
          [
            3.88235342001799,
            0.8924568570310225
          ]
        ]
      },
      {
        "inputSize": 5,
        "outputSize": 4,
        "activation": "Tanh",
        "bias": [
          3.687941445363604,
          -0.9096611474071419,
          2.641385088721697,
          -2.9512358532094582
        ],
        "weight": [
          [
            3.7640515766640426,
            -1.3421863587278489,
            2.8149564699889105,
            5.458927750425904,
            1.9949864448810453
          ],
          [
            0.507878477929963,
            -4.815436083805061,
            2.2033560775955556,
            2.9345170385818644,
            0.7776495328846793
          ],
          [
            -3.4777603104926693,
            1.5044795617716564,
            2.4154897584442323,
            -0.18682741675416992,
            -3.819793282898278
          ],
          [
            -2.622978967232658,
            -0.366357400414139,
            -4.888933195906257,
            -1.383954895683405,
            4.878863214785529
          ]
        ]
      },
      {
        "inputSize": 4,
        "outputSize": 5,
        "activation": "Tanh",
        "bias": [
          1.8618639036053484,
          3.7418931159086286,
          1.8895592625120554,
          -2.49944510225551,
          -5.541796218579798
        ],
        "weight": [
          [
            1.8116925512802713,
            -2.141619768992367,
            -4.608672799482788,
            4.116258634790785
          ],
          [
            8.158551983610923,
            -5.780752858258237,
            -1.9060080710251897,
            1.9720639042573862
          ],
          [
            3.135713957013826,
            4.405254439887313,
            -3.5934408843648953,
            0.06304079273446661
          ],
          [
            5.488029271365313,
            -6.544688750264581,
            -3.2839840663437827,
            -2.1800778787169364
          ],
          [
            -3.206809759881675,
            1.1596616874223884,
            4.510708517096618,
            1.8783066300871085
          ]
        ]
      },
      {
        "inputSize": 5,
        "outputSize": 3,
        "activation": "Tanh",
        "bias": [
          0.6917146687442997,
          -1.916099947636235,
          -3.0078095070006174
        ],
        "weight": [
          [
            -1.4210405094769416,
            3.560513712680685,
            2.9552765944630774,
            1.7724539609948575,
            -3.025233004043056
          ],
          [
            -5.587512133006043,
            5.653242149842737,
            0.506251901215028,
            1.5323326511248379,
            7.3737231481464525
          ],
          [
            -3.256095221478555,
            5.033186111036629,
            -3.8179957304571337,
            3.5430325624346084,
            -2.1844691568297314
          ]
        ]
      },
      {
        "inputSize": 3,
        "outputSize": 1,
        "activation": "Tanh",
        "bias": [
          2.0883173608929395
        ],
        "weight": [
          [
            -0.5549345974010582,
            -4.496580797564703,
            -5.225299471543597
          ]
        ]
      }
    ]
  },
  {
    "layers": [
      {
        "inputSize": 2,
        "outputSize": 5,
        "activation": "Tanh",
        "bias": [
          3.291787627698835,
          -3.4773350330264097,
          1.411107550285121,
          -7.746618727266175,
          2.5819552044107272
        ],
        "weight": [
          [
            -0.9671591629225196,
            0.0867963121048021
          ],
          [
            -0.7392027016120924,
            1.7916805096489412
          ],
          [
            3.4693661580999877,
            -0.32314079167058674
          ],
          [
            -0.8840935047513981,
            -0.8924003521372501
          ],
          [
            3.88235342001799,
            0.8924568570310225
          ]
        ]
      },
      {
        "inputSize": 5,
        "outputSize": 4,
        "activation": "Tanh",
        "bias": [
          3.687941445363604,
          -0.9096611474071419,
          2.641385088721697,
          -2.9512358532094582
        ],
        "weight": [
          [
            3.7640515766640426,
            -1.3421863587278489,
            2.8149564699889105,
            5.458927750425904,
            1.9949864448810453
          ],
          [
            0.507878477929963,
            -4.815436083805061,
            2.2033560775955556,
            2.9345170385818644,
            0.7776495328846793
          ],
          [
            -3.4777603104926693,
            1.5044795617716564,
            2.4154897584442323,
            -0.18682741675416992,
            -3.819793282898278
          ],
          [
            -2.622978967232658,
            -0.366357400414139,
            -4.888933195906257,
            -1.383954895683405,
            4.878863214785529
          ]
        ]
      },
      {
        "inputSize": 4,
        "outputSize": 5,
        "activation": "Tanh",
        "bias": [
          1.8618639036053484,
          3.7418931159086286,
          1.8895592625120554,
          -2.49944510225551,
          -5.541796218579798
        ],
        "weight": [
          [
            1.8116925512802713,
            -2.141619768992367,
            -4.608672799482788,
            4.116258634790785
          ],
          [
            8.158551983610923,
            -5.780752858258237,
            -1.9060080710251897,
            1.9720639042573862
          ],
          [
            3.135713957013826,
            4.405254439887313,
            -3.5934408843648953,
            0.06304079273446661
          ],
          [
            5.488029271365313,
            -6.544688750264581,
            -3.2839840663437827,
            -2.1800778787169364
          ],
          [
            -3.206809759881675,
            1.1596616874223884,
            4.510708517096618,
            1.8783066300871085
          ]
        ]
      },
      {
        "inputSize": 5,
        "outputSize": 3,
        "activation": "Tanh",
        "bias": [
          0.6917146687442997,
          -1.916099947636235,
          -3.0078095070006174
        ],
        "weight": [
          [
            -1.4210405094769416,
            3.560513712680685,
            2.9552765944630774,
            1.7724539609948575,
            -3.025233004043056
          ],
          [
            -5.587512133006043,
            5.653242149842737,
            0.506251901215028,
            1.5323326511248379,
            7.3737231481464525
          ],
          [
            -3.256095221478555,
            5.033186111036629,
            -3.8179957304571337,
            3.5430325624346084,
            -2.1844691568297314
          ]
        ]
      },
      {
        "inputSize": 3,
        "outputSize": 1,
        "activation": "Tanh",
        "bias": [
          2.0883173608929395
        ],
        "weight": [
          [
            -0.5549345974010582,
            -4.496580797564703,
            -5.225299471543597
          ]
        ]
      }
    ]
  },
  {
    "layers": [
      {
        "inputSize": 2,
        "outputSize": 5,
        "activation": "Tanh",
        "bias": [
          3.291787627698835,
          -3.4773350330264097,
          1.411107550285121,
          -7.746618727266175,
          2.5819552044107272
        ],
        "weight": [
          [
            -0.9671591629225196,
            0.0867963121048021
          ],
          [
            -0.7392027016120924,
            1.7916805096489412
          ],
          [
            3.4693661580999877,
            -0.32314079167058674
          ],
          [
            -0.8840935047513981,
            -0.8924003521372501
          ],
          [
            3.88235342001799,
            0.8924568570310225
          ]
        ]
      },
      {
        "inputSize": 5,
        "outputSize": 4,
        "activation": "Tanh",
        "bias": [
          3.687941445363604,
          -0.9096611474071419,
          2.641385088721697,
          -2.9512358532094582
        ],
        "weight": [
          [
            3.7640515766640426,
            -1.3421863587278489,
            2.8149564699889105,
            5.458927750425904,
            1.9949864448810453
          ],
          [
            0.507878477929963,
            -4.815436083805061,
            2.2033560775955556,
            2.9345170385818644,
            0.7776495328846793
          ],
          [
            -3.4777603104926693,
            1.5044795617716564,
            2.4154897584442323,
            -0.18682741675416992,
            -3.819793282898278
          ],
          [
            -2.622978967232658,
            -0.366357400414139,
            -4.888933195906257,
            -1.383954895683405,
            4.878863214785529
          ]
        ]
      },
      {
        "inputSize": 4,
        "outputSize": 5,
        "activation": "Tanh",
        "bias": [
          1.8618639036053484,
          3.7418931159086286,
          1.8895592625120554,
          -2.49944510225551,
          -5.541796218579798
        ],
        "weight": [
          [
            1.8116925512802713,
            -2.141619768992367,
            -4.608672799482788,
            4.116258634790785
          ],
          [
            8.158551983610923,
            -5.780752858258237,
            -1.9060080710251897,
            1.9720639042573862
          ],
          [
            3.135713957013826,
            4.405254439887313,
            -3.5934408843648953,
            0.06304079273446661
          ],
          [
            5.488029271365313,
            -6.544688750264581,
            -3.2839840663437827,
            -2.1800778787169364
          ],
          [
            -3.206809759881675,
            1.1596616874223884,
            4.510708517096618,
            1.8783066300871085
          ]
        ]
      },
      {
        "inputSize": 5,
        "outputSize": 3,
        "activation": "Tanh",
        "bias": [
          0.6917146687442997,
          -1.916099947636235,
          -3.0078095070006174
        ],
        "weight": [
          [
            -1.4210405094769416,
            3.560513712680685,
            2.9552765944630774,
            1.7724539609948575,
            -3.025233004043056
          ],
          [
            -5.587512133006043,
            5.653242149842737,
            0.506251901215028,
            1.5323326511248379,
            7.3737231481464525
          ],
          [
            -3.256095221478555,
            5.033186111036629,
            -3.8179957304571337,
            3.5430325624346084,
            -2.1844691568297314
          ]
        ]
      },
      {
        "inputSize": 3,
        "outputSize": 1,
        "activation": "Tanh",
        "bias": [
          2.0883173608929395
        ],
        "weight": [
          [
            -0.5549345974010582,
            -4.496580797564703,
            -5.225299471543597
          ]
        ]
      }
    ]
  },
  {
    "layers": [
      {
        "inputSize": 2,
        "outputSize": 5,
        "activation": "Tanh",
        "bias": [
          3.291787627698835,
          -3.4773350330264097,
          1.411107550285121,
          -7.746618727266175,
          2.5819552044107272
        ],
        "weight": [
          [
            -0.9671591629225196,
            0.0867963121048021
          ],
          [
            -0.7392027016120924,
            1.7916805096489412
          ],
          [
            3.4693661580999877,
            -0.32314079167058674
          ],
          [
            -0.8840935047513981,
            -0.8924003521372501
          ],
          [
            3.88235342001799,
            0.8924568570310225
          ]
        ]
      },
      {
        "inputSize": 5,
        "outputSize": 4,
        "activation": "Tanh",
        "bias": [
          3.687941445363604,
          -0.9096611474071419,
          2.641385088721697,
          -2.9512358532094582
        ],
        "weight": [
          [
            3.7640515766640426,
            -1.3421863587278489,
            2.8149564699889105,
            5.458927750425904,
            1.9949864448810453
          ],
          [
            0.507878477929963,
            -4.815436083805061,
            2.2033560775955556,
            2.9345170385818644,
            0.7776495328846793
          ],
          [
            -3.4777603104926693,
            1.5044795617716564,
            2.4154897584442323,
            -0.18682741675416992,
            -3.819793282898278
          ],
          [
            -2.622978967232658,
            -0.366357400414139,
            -4.888933195906257,
            -1.383954895683405,
            4.878863214785529
          ]
        ]
      },
      {
        "inputSize": 4,
        "outputSize": 5,
        "activation": "Tanh",
        "bias": [
          1.8618639036053484,
          3.7418931159086286,
          1.8895592625120554,
          -2.49944510225551,
          -5.541796218579798
        ],
        "weight": [
          [
            1.8116925512802713,
            -2.141619768992367,
            -4.608672799482788,
            4.116258634790785
          ],
          [
            8.158551983610923,
            -5.780752858258237,
            -1.9060080710251897,
            1.9720639042573862
          ],
          [
            3.135713957013826,
            4.405254439887313,
            -3.5934408843648953,
            0.06304079273446661
          ],
          [
            5.488029271365313,
            -6.544688750264581,
            -3.2839840663437827,
            -2.1800778787169364
          ],
          [
            -3.206809759881675,
            1.1596616874223884,
            4.510708517096618,
            1.8783066300871085
          ]
        ]
      },
      {
        "inputSize": 5,
        "outputSize": 3,
        "activation": "Tanh",
        "bias": [
          0.6917146687442997,
          -1.916099947636235,
          -3.0078095070006174
        ],
        "weight": [
          [
            -1.4210405094769416,
            3.560513712680685,
            2.9552765944630774,
            1.7724539609948575,
            -3.025233004043056
          ],
          [
            -5.587512133006043,
            5.653242149842737,
            0.506251901215028,
            1.5323326511248379,
            7.3737231481464525
          ],
          [
            -3.256095221478555,
            5.033186111036629,
            -3.8179957304571337,
            3.5430325624346084,
            -2.1844691568297314
          ]
        ]
      },
      {
        "inputSize": 3,
        "outputSize": 1,
        "activation": "Tanh",
        "bias": [
          2.0883173608929395
        ],
        "weight": [
          [
            -0.5549345974010582,
            -4.496580797564703,
            -5.225299471543597
          ]
        ]
      }
    ]
  },
  {
    "layers": [
      {
        "inputSize": 2,
        "outputSize": 5,
        "activation": "Tanh",
        "bias": [
          3.291787627698835,
          -3.4773350330264097,
          1.411107550285121,
          -7.746618727266175,
          2.5819552044107272
        ],
        "weight": [
          [
            -0.9671591629225196,
            0.0867963121048021
          ],
          [
            -0.7392027016120924,
            1.7916805096489412
          ],
          [
            3.4693661580999877,
            -0.32314079167058674
          ],
          [
            -0.8840935047513981,
            -0.8924003521372501
          ],
          [
            3.88235342001799,
            0.8924568570310225
          ]
        ]
      },
      {
        "inputSize": 5,
        "outputSize": 4,
        "activation": "Tanh",
        "bias": [
          3.687941445363604,
          -0.9096611474071419,
          2.641385088721697,
          -2.9512358532094582
        ],
        "weight": [
          [
            3.7640515766640426,
            -1.3421863587278489,
            2.8149564699889105,
            5.458927750425904,
            1.9949864448810453
          ],
          [
            0.507878477929963,
            -4.815436083805061,
            2.2033560775955556,
            2.9345170385818644,
            0.7776495328846793
          ],
          [
            -3.4777603104926693,
            1.5044795617716564,
            2.4154897584442323,
            -0.18682741675416992,
            -3.819793282898278
          ],
          [
            -2.622978967232658,
            -0.366357400414139,
            -4.888933195906257,
            -1.383954895683405,
            4.878863214785529
          ]
        ]
      },
      {
        "inputSize": 4,
        "outputSize": 5,
        "activation": "Tanh",
        "bias": [
          1.8618639036053484,
          3.7418931159086286,
          1.8895592625120554,
          -2.49944510225551,
          -5.541796218579798
        ],
        "weight": [
          [
            1.8116925512802713,
            -2.141619768992367,
            -4.608672799482788,
            4.116258634790785
          ],
          [
            8.158551983610923,
            -5.780752858258237,
            -1.9060080710251897,
            1.9720639042573862
          ],
          [
            3.135713957013826,
            4.405254439887313,
            -3.5934408843648953,
            0.06304079273446661
          ],
          [
            5.488029271365313,
            -6.544688750264581,
            -3.2839840663437827,
            -2.1800778787169364
          ],
          [
            -3.206809759881675,
            1.1596616874223884,
            4.510708517096618,
            1.8783066300871085
          ]
        ]
      },
      {
        "inputSize": 5,
        "outputSize": 3,
        "activation": "Tanh",
        "bias": [
          0.6917146687442997,
          -1.916099947636235,
          -3.0078095070006174
        ],
        "weight": [
          [
            -1.4210405094769416,
            3.560513712680685,
            2.9552765944630774,
            1.7724539609948575,
            -3.025233004043056
          ],
          [
            -5.587512133006043,
            5.653242149842737,
            0.506251901215028,
            1.5323326511248379,
            7.3737231481464525
          ],
          [
            -3.256095221478555,
            5.033186111036629,
            -3.8179957304571337,
            3.5430325624346084,
            -2.1844691568297314
          ]
        ]
      },
      {
        "inputSize": 3,
        "outputSize": 1,
        "activation": "Tanh",
        "bias": [
          2.0883173608929395
        ],
        "weight": [
          [
            -0.5549345974010582,
            -4.496580797564703,
            -5.225299471543597
          ]
        ]
      }
    ]
  },
  {
    "layers": [
      {
        "inputSize": 2,
        "outputSize": 5,
        "activation": "Tanh",
        "bias": [
          3.291787627698835,
          -3.4773350330264097,
          1.411107550285121,
          -7.746618727266175,
          2.5819552044107272
        ],
        "weight": [
          [
            -0.9671591629225196,
            0.0867963121048021
          ],
          [
            -0.7392027016120924,
            1.7916805096489412
          ],
          [
            3.4693661580999877,
            -0.32314079167058674
          ],
          [
            -0.8840935047513981,
            -0.8924003521372501
          ],
          [
            3.88235342001799,
            0.8924568570310225
          ]
        ]
      },
      {
        "inputSize": 5,
        "outputSize": 4,
        "activation": "Tanh",
        "bias": [
          3.687941445363604,
          -0.9096611474071419,
          2.641385088721697,
          -2.9512358532094582
        ],
        "weight": [
          [
            3.7640515766640426,
            -1.3421863587278489,
            2.8149564699889105,
            5.458927750425904,
            1.9949864448810453
          ],
          [
            0.507878477929963,
            -4.815436083805061,
            2.2033560775955556,
            2.9345170385818644,
            0.7776495328846793
          ],
          [
            -3.4777603104926693,
            1.5044795617716564,
            2.4154897584442323,
            -0.18682741675416992,
            -3.819793282898278
          ],
          [
            -2.622978967232658,
            -0.366357400414139,
            -4.888933195906257,
            -1.383954895683405,
            4.878863214785529
          ]
        ]
      },
      {
        "inputSize": 4,
        "outputSize": 5,
        "activation": "Tanh",
        "bias": [
          1.8618639036053484,
          3.7418931159086286,
          1.8895592625120554,
          -2.49944510225551,
          -5.541796218579798
        ],
        "weight": [
          [
            1.8116925512802713,
            -2.141619768992367,
            -4.608672799482788,
            4.116258634790785
          ],
          [
            8.158551983610923,
            -5.780752858258237,
            -1.9060080710251897,
            1.9720639042573862
          ],
          [
            3.135713957013826,
            4.405254439887313,
            -3.5934408843648953,
            0.06304079273446661
          ],
          [
            5.488029271365313,
            -6.544688750264581,
            -3.2839840663437827,
            -2.1800778787169364
          ],
          [
            -3.206809759881675,
            1.1596616874223884,
            4.510708517096618,
            1.8783066300871085
          ]
        ]
      },
      {
        "inputSize": 5,
        "outputSize": 3,
        "activation": "Tanh",
        "bias": [
          0.6917146687442997,
          -1.916099947636235,
          -3.0078095070006174
        ],
        "weight": [
          [
            -1.4210405094769416,
            3.560513712680685,
            2.9552765944630774,
            1.7724539609948575,
            -3.025233004043056
          ],
          [
            -5.587512133006043,
            5.653242149842737,
            0.506251901215028,
            1.5323326511248379,
            7.3737231481464525
          ],
          [
            -3.256095221478555,
            5.033186111036629,
            -3.8179957304571337,
            3.5430325624346084,
            -2.1844691568297314
          ]
        ]
      },
      {
        "inputSize": 3,
        "outputSize": 1,
        "activation": "Tanh",
        "bias": [
          2.0883173608929395
        ],
        "weight": [
          [
            -0.5549345974010582,
            -4.496580797564703,
            -5.225299471543597
          ]
        ]
      }
    ]
  },
  {
    "layers": [
      {
        "inputSize": 2,
        "outputSize": 5,
        "activation": "Tanh",
        "bias": [
          3.291787627698835,
          -3.4773350330264097,
          1.411107550285121,
          -7.746618727266175,
          2.5819552044107272
        ],
        "weight": [
          [
            -0.9671591629225196,
            0.0867963121048021
          ],
          [
            -0.7392027016120924,
            1.7916805096489412
          ],
          [
            3.4693661580999877,
            -0.32314079167058674
          ],
          [
            -0.8840935047513981,
            -0.8924003521372501
          ],
          [
            3.88235342001799,
            0.8924568570310225
          ]
        ]
      },
      {
        "inputSize": 5,
        "outputSize": 4,
        "activation": "Tanh",
        "bias": [
          3.687941445363604,
          -0.9096611474071419,
          2.641385088721697,
          -2.9512358532094582
        ],
        "weight": [
          [
            3.7640515766640426,
            -1.3421863587278489,
            2.8149564699889105,
            5.458927750425904,
            1.9949864448810453
          ],
          [
            0.507878477929963,
            -4.815436083805061,
            2.2033560775955556,
            2.9345170385818644,
            0.7776495328846793
          ],
          [
            -3.4777603104926693,
            1.5044795617716564,
            2.4154897584442323,
            -0.18682741675416992,
            -3.819793282898278
          ],
          [
            -2.622978967232658,
            -0.366357400414139,
            -4.888933195906257,
            -1.383954895683405,
            4.878863214785529
          ]
        ]
      },
      {
        "inputSize": 4,
        "outputSize": 5,
        "activation": "Tanh",
        "bias": [
          1.8618639036053484,
          3.7418931159086286,
          1.8895592625120554,
          -2.49944510225551,
          -5.541796218579798
        ],
        "weight": [
          [
            1.8116925512802713,
            -2.141619768992367,
            -4.608672799482788,
            4.116258634790785
          ],
          [
            8.158551983610923,
            -5.780752858258237,
            -1.9060080710251897,
            1.9720639042573862
          ],
          [
            3.135713957013826,
            4.405254439887313,
            -3.5934408843648953,
            0.06304079273446661
          ],
          [
            5.488029271365313,
            -6.544688750264581,
            -3.2839840663437827,
            -2.1800778787169364
          ],
          [
            -3.206809759881675,
            1.1596616874223884,
            4.510708517096618,
            1.8783066300871085
          ]
        ]
      },
      {
        "inputSize": 5,
        "outputSize": 3,
        "activation": "Tanh",
        "bias": [
          0.6917146687442997,
          -1.916099947636235,
          -3.0078095070006174
        ],
        "weight": [
          [
            -1.4210405094769416,
            3.560513712680685,
            2.9552765944630774,
            1.7724539609948575,
            -3.025233004043056
          ],
          [
            -5.587512133006043,
            5.653242149842737,
            0.506251901215028,
            1.5323326511248379,
            7.3737231481464525
          ],
          [
            -3.256095221478555,
            5.033186111036629,
            -3.8179957304571337,
            3.5430325624346084,
            -2.1844691568297314
          ]
        ]
      },
      {
        "inputSize": 3,
        "outputSize": 1,
        "activation": "Tanh",
        "bias": [
          2.0883173608929395
        ],
        "weight": [
          [
            -0.5549345974010582,
            -4.496580797564703,
            -5.225299471543597
          ]
        ]
      }
    ]
  },
  {
    "layers": [
      {
        "inputSize": 2,
        "outputSize": 5,
        "activation": "Tanh",
        "bias": [
          3.291787627698835,
          -3.4773350330264097,
          1.411107550285121,
          -7.746618727266175,
          2.5819552044107272
        ],
        "weight": [
          [
            -0.9671591629225196,
            0.0867963121048021
          ],
          [
            -0.7392027016120924,
            1.7916805096489412
          ],
          [
            3.4693661580999877,
            -0.32314079167058674
          ],
          [
            -0.8840935047513981,
            -0.8924003521372501
          ],
          [
            3.88235342001799,
            0.8924568570310225
          ]
        ]
      },
      {
        "inputSize": 5,
        "outputSize": 4,
        "activation": "Tanh",
        "bias": [
          3.687941445363604,
          -0.9096611474071419,
          2.641385088721697,
          -2.9512358532094582
        ],
        "weight": [
          [
            3.7640515766640426,
            -1.3421863587278489,
            2.8149564699889105,
            5.458927750425904,
            1.9949864448810453
          ],
          [
            0.507878477929963,
            -4.815436083805061,
            2.2033560775955556,
            2.9345170385818644,
            0.7776495328846793
          ],
          [
            -3.4777603104926693,
            1.5044795617716564,
            2.4154897584442323,
            -0.18682741675416992,
            -3.819793282898278
          ],
          [
            -2.622978967232658,
            -0.366357400414139,
            -4.888933195906257,
            -1.383954895683405,
            4.878863214785529
          ]
        ]
      },
      {
        "inputSize": 4,
        "outputSize": 5,
        "activation": "Tanh",
        "bias": [
          1.8618639036053484,
          3.7418931159086286,
          1.8895592625120554,
          -2.49944510225551,
          -5.541796218579798
        ],
        "weight": [
          [
            1.8116925512802713,
            -2.141619768992367,
            -4.608672799482788,
            4.116258634790785
          ],
          [
            8.158551983610923,
            -5.780752858258237,
            -1.9060080710251897,
            1.9720639042573862
          ],
          [
            3.135713957013826,
            4.405254439887313,
            -3.5934408843648953,
            0.06304079273446661
          ],
          [
            5.488029271365313,
            -6.544688750264581,
            -3.2839840663437827,
            -2.1800778787169364
          ],
          [
            -3.206809759881675,
            1.1596616874223884,
            4.510708517096618,
            1.8783066300871085
          ]
        ]
      },
      {
        "inputSize": 5,
        "outputSize": 3,
        "activation": "Tanh",
        "bias": [
          0.6917146687442997,
          -1.916099947636235,
          -3.0078095070006174
        ],
        "weight": [
          [
            -1.4210405094769416,
            3.560513712680685,
            2.9552765944630774,
            1.7724539609948575,
            -3.025233004043056
          ],
          [
            -5.587512133006043,
            5.653242149842737,
            0.506251901215028,
            1.5323326511248379,
            7.3737231481464525
          ],
          [
            -3.256095221478555,
            5.033186111036629,
            -3.8179957304571337,
            3.5430325624346084,
            -2.1844691568297314
          ]
        ]
      },
      {
        "inputSize": 3,
        "outputSize": 1,
        "activation": "Tanh",
        "bias": [
          2.0883173608929395
        ],
        "weight": [
          [
            -0.5549345974010582,
            -4.496580797564703,
            -5.225299471543597
          ]
        ]
      }
    ]
  },
  {
    "layers": [
      {
        "inputSize": 2,
        "outputSize": 5,
        "activation": "Tanh",
        "bias": [
          3.291787627698835,
          -3.4773350330264097,
          1.411107550285121,
          -7.746618727266175,
          2.5819552044107272
        ],
        "weight": [
          [
            -0.9671591629225196,
            0.0867963121048021
          ],
          [
            -0.7392027016120924,
            1.7916805096489412
          ],
          [
            3.4693661580999877,
            -0.32314079167058674
          ],
          [
            -0.8840935047513981,
            -0.8924003521372501
          ],
          [
            3.88235342001799,
            0.8924568570310225
          ]
        ]
      },
      {
        "inputSize": 5,
        "outputSize": 4,
        "activation": "Tanh",
        "bias": [
          3.687941445363604,
          -0.9096611474071419,
          2.641385088721697,
          -2.9512358532094582
        ],
        "weight": [
          [
            3.7640515766640426,
            -1.3421863587278489,
            2.8149564699889105,
            5.458927750425904,
            1.9949864448810453
          ],
          [
            0.507878477929963,
            -4.815436083805061,
            2.2033560775955556,
            2.9345170385818644,
            0.7776495328846793
          ],
          [
            -3.4777603104926693,
            1.5044795617716564,
            2.4154897584442323,
            -0.18682741675416992,
            -3.819793282898278
          ],
          [
            -2.622978967232658,
            -0.366357400414139,
            -4.888933195906257,
            -1.383954895683405,
            4.878863214785529
          ]
        ]
      },
      {
        "inputSize": 4,
        "outputSize": 5,
        "activation": "Tanh",
        "bias": [
          1.8618639036053484,
          3.7418931159086286,
          1.8895592625120554,
          -2.49944510225551,
          -5.541796218579798
        ],
        "weight": [
          [
            1.8116925512802713,
            -2.141619768992367,
            -4.608672799482788,
            4.116258634790785
          ],
          [
            8.158551983610923,
            -5.780752858258237,
            -1.9060080710251897,
            1.9720639042573862
          ],
          [
            3.135713957013826,
            4.405254439887313,
            -3.5934408843648953,
            0.06304079273446661
          ],
          [
            5.488029271365313,
            -6.544688750264581,
            -3.2839840663437827,
            -2.1800778787169364
          ],
          [
            -3.206809759881675,
            1.1596616874223884,
            4.510708517096618,
            1.8783066300871085
          ]
        ]
      },
      {
        "inputSize": 5,
        "outputSize": 3,
        "activation": "Tanh",
        "bias": [
          0.6917146687442997,
          -1.916099947636235,
          -3.0078095070006174
        ],
        "weight": [
          [
            -1.4210405094769416,
            3.560513712680685,
            2.9552765944630774,
            1.7724539609948575,
            -3.025233004043056
          ],
          [
            -5.587512133006043,
            5.653242149842737,
            0.506251901215028,
            1.5323326511248379,
            7.3737231481464525
          ],
          [
            -3.256095221478555,
            5.033186111036629,
            -3.8179957304571337,
            3.5430325624346084,
            -2.1844691568297314
          ]
        ]
      },
      {
        "inputSize": 3,
        "outputSize": 1,
        "activation": "Tanh",
        "bias": [
          2.0883173608929395
        ],
        "weight": [
          [
            -0.5549345974010582,
            -4.496580797564703,
            -5.225299471543597
          ]
        ]
      }
    ]
  },
  {
    "layers": [
      {
        "inputSize": 2,
        "outputSize": 5,
        "activation": "Tanh",
        "bias": [
          3.291787627698835,
          -3.4773350330264097,
          1.411107550285121,
          -7.746618727266175,
          2.5819552044107272
        ],
        "weight": [
          [
            -0.9671591629225196,
            0.0867963121048021
          ],
          [
            -0.7392027016120924,
            1.7916805096489412
          ],
          [
            3.4693661580999877,
            -0.32314079167058674
          ],
          [
            -0.8840935047513981,
            -0.8924003521372501
          ],
          [
            3.88235342001799,
            0.8924568570310225
          ]
        ]
      },
      {
        "inputSize": 5,
        "outputSize": 4,
        "activation": "Tanh",
        "bias": [
          3.687941445363604,
          -0.9096611474071419,
          2.641385088721697,
          -2.9512358532094582
        ],
        "weight": [
          [
            3.7640515766640426,
            -1.3421863587278489,
            2.8149564699889105,
            5.458927750425904,
            1.9949864448810453
          ],
          [
            0.507878477929963,
            -4.815436083805061,
            2.2033560775955556,
            2.9345170385818644,
            0.7776495328846793
          ],
          [
            -3.4777603104926693,
            1.5044795617716564,
            2.4154897584442323,
            -0.18682741675416992,
            -3.819793282898278
          ],
          [
            -2.622978967232658,
            -0.366357400414139,
            -4.888933195906257,
            -1.383954895683405,
            4.878863214785529
          ]
        ]
      },
      {
        "inputSize": 4,
        "outputSize": 5,
        "activation": "Tanh",
        "bias": [
          1.8618639036053484,
          3.7418931159086286,
          1.8895592625120554,
          -2.49944510225551,
          -5.541796218579798
        ],
        "weight": [
          [
            1.8116925512802713,
            -2.141619768992367,
            -4.608672799482788,
            4.116258634790785
          ],
          [
            8.158551983610923,
            -5.780752858258237,
            -1.9060080710251897,
            1.9720639042573862
          ],
          [
            3.135713957013826,
            4.405254439887313,
            -3.5934408843648953,
            0.06304079273446661
          ],
          [
            5.488029271365313,
            -6.544688750264581,
            -3.2839840663437827,
            -2.1800778787169364
          ],
          [
            -3.206809759881675,
            1.1596616874223884,
            4.510708517096618,
            1.8783066300871085
          ]
        ]
      },
      {
        "inputSize": 5,
        "outputSize": 3,
        "activation": "Tanh",
        "bias": [
          0.6917146687442997,
          -1.916099947636235,
          -3.0078095070006174
        ],
        "weight": [
          [
            -1.4210405094769416,
            3.560513712680685,
            2.9552765944630774,
            1.7724539609948575,
            -3.025233004043056
          ],
          [
            -5.587512133006043,
            5.653242149842737,
            0.506251901215028,
            1.5323326511248379,
            7.3737231481464525
          ],
          [
            -3.256095221478555,
            5.033186111036629,
            -3.8179957304571337,
            3.5430325624346084,
            -2.1844691568297314
          ]
        ]
      },
      {
        "inputSize": 3,
        "outputSize": 1,
        "activation": "Tanh",
        "bias": [
          2.0883173608929395
        ],
        "weight": [
          [
            -0.5549345974010582,
            -4.496580797564703,
            -5.225299471543597
          ]
        ]
      }
    ]
  },
  {
    "layers": [
      {
        "inputSize": 2,
        "outputSize": 5,
        "activation": "Tanh",
        "bias": [
          3.291787627698835,
          -3.4773350330264097,
          1.411107550285121,
          -7.746618727266175,
          2.5819552044107272
        ],
        "weight": [
          [
            -0.9671591629225196,
            0.0867963121048021
          ],
          [
            -0.7392027016120924,
            1.7916805096489412
          ],
          [
            3.4693661580999877,
            -0.32314079167058674
          ],
          [
            -0.8840935047513981,
            -0.8924003521372501
          ],
          [
            3.88235342001799,
            0.8924568570310225
          ]
        ]
      },
      {
        "inputSize": 5,
        "outputSize": 4,
        "activation": "Tanh",
        "bias": [
          3.687941445363604,
          -0.9096611474071419,
          2.641385088721697,
          -2.9512358532094582
        ],
        "weight": [
          [
            3.7640515766640426,
            -1.3421863587278489,
            2.8149564699889105,
            5.458927750425904,
            1.9949864448810453
          ],
          [
            0.507878477929963,
            -4.815436083805061,
            2.2033560775955556,
            2.9345170385818644,
            0.7776495328846793
          ],
          [
            -3.4777603104926693,
            1.5044795617716564,
            2.4154897584442323,
            -0.18682741675416992,
            -3.819793282898278
          ],
          [
            -2.622978967232658,
            -0.366357400414139,
            -4.888933195906257,
            -1.383954895683405,
            4.878863214785529
          ]
        ]
      },
      {
        "inputSize": 4,
        "outputSize": 5,
        "activation": "Tanh",
        "bias": [
          1.8618639036053484,
          3.7418931159086286,
          1.8895592625120554,
          -2.49944510225551,
          -5.541796218579798
        ],
        "weight": [
          [
            1.8116925512802713,
            -2.141619768992367,
            -4.608672799482788,
            4.116258634790785
          ],
          [
            8.158551983610923,
            -5.780752858258237,
            -1.9060080710251897,
            1.9720639042573862
          ],
          [
            3.135713957013826,
            4.405254439887313,
            -3.5934408843648953,
            0.06304079273446661
          ],
          [
            5.488029271365313,
            -6.544688750264581,
            -3.2839840663437827,
            -2.1800778787169364
          ],
          [
            -3.206809759881675,
            1.1596616874223884,
            4.510708517096618,
            1.8783066300871085
          ]
        ]
      },
      {
        "inputSize": 5,
        "outputSize": 3,
        "activation": "Tanh",
        "bias": [
          0.6917146687442997,
          -1.916099947636235,
          -3.0078095070006174
        ],
        "weight": [
          [
            -1.4210405094769416,
            3.560513712680685,
            2.9552765944630774,
            1.7724539609948575,
            -3.025233004043056
          ],
          [
            -5.587512133006043,
            5.653242149842737,
            0.506251901215028,
            1.5323326511248379,
            7.3737231481464525
          ],
          [
            -3.256095221478555,
            5.033186111036629,
            -3.8179957304571337,
            3.5430325624346084,
            -2.1844691568297314
          ]
        ]
      },
      {
        "inputSize": 3,
        "outputSize": 1,
        "activation": "Tanh",
        "bias": [
          2.0883173608929395
        ],
        "weight": [
          [
            -0.5549345974010582,
            -4.496580797564703,
            -5.225299471543597
          ]
        ]
      }
    ]
  },
  {
    "layers": [
      {
        "inputSize": 2,
        "outputSize": 5,
        "activation": "Tanh",
        "bias": [
          3.291787627698835,
          -3.4773350330264097,
          1.411107550285121,
          -7.746618727266175,
          2.5819552044107272
        ],
        "weight": [
          [
            -0.9671591629225196,
            0.0867963121048021
          ],
          [
            -0.7392027016120924,
            1.7916805096489412
          ],
          [
            3.4693661580999877,
            -0.32314079167058674
          ],
          [
            -0.8840935047513981,
            -0.8924003521372501
          ],
          [
            3.88235342001799,
            0.8924568570310225
          ]
        ]
      },
      {
        "inputSize": 5,
        "outputSize": 4,
        "activation": "Tanh",
        "bias": [
          3.687941445363604,
          -0.9096611474071419,
          2.641385088721697,
          -2.9512358532094582
        ],
        "weight": [
          [
            3.7640515766640426,
            -1.3421863587278489,
            2.8149564699889105,
            5.458927750425904,
            1.9949864448810453
          ],
          [
            0.507878477929963,
            -4.815436083805061,
            2.2033560775955556,
            2.9345170385818644,
            0.7776495328846793
          ],
          [
            -3.4777603104926693,
            1.5044795617716564,
            2.4154897584442323,
            -0.18682741675416992,
            -3.819793282898278
          ],
          [
            -2.622978967232658,
            -0.366357400414139,
            -4.888933195906257,
            -1.383954895683405,
            4.878863214785529
          ]
        ]
      },
      {
        "inputSize": 4,
        "outputSize": 5,
        "activation": "Tanh",
        "bias": [
          1.8618639036053484,
          3.7418931159086286,
          1.8895592625120554,
          -2.49944510225551,
          -5.541796218579798
        ],
        "weight": [
          [
            1.8116925512802713,
            -2.141619768992367,
            -4.608672799482788,
            4.116258634790785
          ],
          [
            8.158551983610923,
            -5.780752858258237,
            -1.9060080710251897,
            1.9720639042573862
          ],
          [
            3.135713957013826,
            4.405254439887313,
            -3.5934408843648953,
            0.06304079273446661
          ],
          [
            5.488029271365313,
            -6.544688750264581,
            -3.2839840663437827,
            -2.1800778787169364
          ],
          [
            -3.206809759881675,
            1.1596616874223884,
            4.510708517096618,
            1.8783066300871085
          ]
        ]
      },
      {
        "inputSize": 5,
        "outputSize": 3,
        "activation": "Tanh",
        "bias": [
          0.6917146687442997,
          -1.916099947636235,
          -3.0078095070006174
        ],
        "weight": [
          [
            -1.4210405094769416,
            3.560513712680685,
            2.9552765944630774,
            1.7724539609948575,
            -3.025233004043056
          ],
          [
            -5.587512133006043,
            5.653242149842737,
            0.506251901215028,
            1.5323326511248379,
            7.3737231481464525
          ],
          [
            -3.256095221478555,
            5.033186111036629,
            -3.8179957304571337,
            3.5430325624346084,
            -2.1844691568297314
          ]
        ]
      },
      {
        "inputSize": 3,
        "outputSize": 1,
        "activation": "Tanh",
        "bias": [
          2.0883173608929395
        ],
        "weight": [
          [
            -0.5549345974010582,
            -4.496580797564703,
            -5.225299471543597
          ]
        ]
      }
    ]
  },
  {
    "layers": [
      {
        "inputSize": 2,
        "outputSize": 5,
        "activation": "Tanh",
        "bias": [
          3.291787627698835,
          -3.4773350330264097,
          1.411107550285121,
          -7.746618727266175,
          2.5819552044107272
        ],
        "weight": [
          [
            -0.9671591629225196,
            0.0867963121048021
          ],
          [
            -0.7392027016120924,
            1.7916805096489412
          ],
          [
            3.4693661580999877,
            -0.32314079167058674
          ],
          [
            -0.8840935047513981,
            -0.8924003521372501
          ],
          [
            3.88235342001799,
            0.8924568570310225
          ]
        ]
      },
      {
        "inputSize": 5,
        "outputSize": 4,
        "activation": "Tanh",
        "bias": [
          3.687941445363604,
          -0.9096611474071419,
          2.641385088721697,
          -2.9512358532094582
        ],
        "weight": [
          [
            3.7640515766640426,
            -1.3421863587278489,
            2.8149564699889105,
            5.458927750425904,
            1.9949864448810453
          ],
          [
            0.507878477929963,
            -4.815436083805061,
            2.2033560775955556,
            2.9345170385818644,
            0.7776495328846793
          ],
          [
            -3.4777603104926693,
            1.5044795617716564,
            2.4154897584442323,
            -0.18682741675416992,
            -3.819793282898278
          ],
          [
            -2.622978967232658,
            -0.366357400414139,
            -4.888933195906257,
            -1.383954895683405,
            4.878863214785529
          ]
        ]
      },
      {
        "inputSize": 4,
        "outputSize": 5,
        "activation": "Tanh",
        "bias": [
          1.8618639036053484,
          3.7418931159086286,
          1.8895592625120554,
          -2.49944510225551,
          -5.541796218579798
        ],
        "weight": [
          [
            1.8116925512802713,
            -2.141619768992367,
            -4.608672799482788,
            4.116258634790785
          ],
          [
            8.158551983610923,
            -5.780752858258237,
            -1.9060080710251897,
            1.9720639042573862
          ],
          [
            3.135713957013826,
            4.405254439887313,
            -3.5934408843648953,
            0.06304079273446661
          ],
          [
            5.488029271365313,
            -6.544688750264581,
            -3.2839840663437827,
            -2.1800778787169364
          ],
          [
            -3.206809759881675,
            1.1596616874223884,
            4.510708517096618,
            1.8783066300871085
          ]
        ]
      },
      {
        "inputSize": 5,
        "outputSize": 3,
        "activation": "Tanh",
        "bias": [
          0.6917146687442997,
          -1.916099947636235,
          -3.0078095070006174
        ],
        "weight": [
          [
            -1.4210405094769416,
            3.560513712680685,
            2.9552765944630774,
            1.7724539609948575,
            -3.025233004043056
          ],
          [
            -5.587512133006043,
            5.653242149842737,
            0.506251901215028,
            1.5323326511248379,
            7.3737231481464525
          ],
          [
            -3.256095221478555,
            5.033186111036629,
            -3.8179957304571337,
            3.5430325624346084,
            -2.1844691568297314
          ]
        ]
      },
      {
        "inputSize": 3,
        "outputSize": 1,
        "activation": "Tanh",
        "bias": [
          2.0883173608929395
        ],
        "weight": [
          [
            -0.5549345974010582,
            -4.496580797564703,
            -5.225299471543597
          ]
        ]
      }
    ]
  },
  {
    "layers": [
      {
        "inputSize": 2,
        "outputSize": 5,
        "activation": "Tanh",
        "bias": [
          3.291787627698835,
          -3.4773350330264097,
          1.411107550285121,
          -7.746618727266175,
          2.5819552044107272
        ],
        "weight": [
          [
            -0.9671591629225196,
            0.0867963121048021
          ],
          [
            -0.7392027016120924,
            1.7916805096489412
          ],
          [
            3.4693661580999877,
            -0.32314079167058674
          ],
          [
            -0.8840935047513981,
            -0.8924003521372501
          ],
          [
            3.88235342001799,
            0.8924568570310225
          ]
        ]
      },
      {
        "inputSize": 5,
        "outputSize": 4,
        "activation": "Tanh",
        "bias": [
          3.687941445363604,
          -0.9096611474071419,
          2.641385088721697,
          -2.9512358532094582
        ],
        "weight": [
          [
            3.7640515766640426,
            -1.3421863587278489,
            2.8149564699889105,
            5.458927750425904,
            1.9949864448810453
          ],
          [
            0.507878477929963,
            -4.815436083805061,
            2.2033560775955556,
            2.9345170385818644,
            0.7776495328846793
          ],
          [
            -3.4777603104926693,
            1.5044795617716564,
            2.4154897584442323,
            -0.18682741675416992,
            -3.819793282898278
          ],
          [
            -2.622978967232658,
            -0.366357400414139,
            -4.888933195906257,
            -1.383954895683405,
            4.878863214785529
          ]
        ]
      },
      {
        "inputSize": 4,
        "outputSize": 5,
        "activation": "Tanh",
        "bias": [
          1.8618639036053484,
          3.7418931159086286,
          1.8895592625120554,
          -2.49944510225551,
          -5.541796218579798
        ],
        "weight": [
          [
            1.8116925512802713,
            -2.141619768992367,
            -4.608672799482788,
            4.116258634790785
          ],
          [
            8.158551983610923,
            -5.780752858258237,
            -1.9060080710251897,
            1.9720639042573862
          ],
          [
            3.135713957013826,
            4.405254439887313,
            -3.5934408843648953,
            0.06304079273446661
          ],
          [
            5.488029271365313,
            -6.544688750264581,
            -3.2839840663437827,
            -2.1800778787169364
          ],
          [
            -3.206809759881675,
            1.1596616874223884,
            4.510708517096618,
            1.8783066300871085
          ]
        ]
      },
      {
        "inputSize": 5,
        "outputSize": 3,
        "activation": "Tanh",
        "bias": [
          0.6917146687442997,
          -1.916099947636235,
          -3.0078095070006174
        ],
        "weight": [
          [
            -1.4210405094769416,
            3.560513712680685,
            2.9552765944630774,
            1.7724539609948575,
            -3.025233004043056
          ],
          [
            -5.587512133006043,
            5.653242149842737,
            0.506251901215028,
            1.5323326511248379,
            7.3737231481464525
          ],
          [
            -3.256095221478555,
            5.033186111036629,
            -3.8179957304571337,
            3.5430325624346084,
            -2.1844691568297314
          ]
        ]
      },
      {
        "inputSize": 3,
        "outputSize": 1,
        "activation": "Tanh",
        "bias": [
          2.0883173608929395
        ],
        "weight": [
          [
            -0.5549345974010582,
            -4.496580797564703,
            -5.225299471543597
          ]
        ]
      }
    ]
  },
  {
    "layers": [
      {
        "inputSize": 2,
        "outputSize": 5,
        "activation": "Tanh",
        "bias": [
          3.291787627698835,
          -3.4773350330264097,
          1.411107550285121,
          -7.746618727266175,
          2.5819552044107272
        ],
        "weight": [
          [
            -0.9671591629225196,
            0.0867963121048021
          ],
          [
            -0.7392027016120924,
            1.7916805096489412
          ],
          [
            3.4693661580999877,
            -0.32314079167058674
          ],
          [
            -0.8840935047513981,
            -0.8924003521372501
          ],
          [
            3.88235342001799,
            0.8924568570310225
          ]
        ]
      },
      {
        "inputSize": 5,
        "outputSize": 4,
        "activation": "Tanh",
        "bias": [
          3.687941445363604,
          -0.9096611474071419,
          2.641385088721697,
          -2.9512358532094582
        ],
        "weight": [
          [
            3.7640515766640426,
            -1.3421863587278489,
            2.8149564699889105,
            5.458927750425904,
            1.9949864448810453
          ],
          [
            0.507878477929963,
            -4.815436083805061,
            2.2033560775955556,
            2.9345170385818644,
            0.7776495328846793
          ],
          [
            -3.4777603104926693,
            1.5044795617716564,
            2.4154897584442323,
            -0.18682741675416992,
            -3.819793282898278
          ],
          [
            -2.622978967232658,
            -0.366357400414139,
            -4.888933195906257,
            -1.383954895683405,
            4.878863214785529
          ]
        ]
      },
      {
        "inputSize": 4,
        "outputSize": 5,
        "activation": "Tanh",
        "bias": [
          1.8618639036053484,
          3.7418931159086286,
          1.8895592625120554,
          -2.49944510225551,
          -5.541796218579798
        ],
        "weight": [
          [
            1.8116925512802713,
            -2.141619768992367,
            -4.608672799482788,
            4.116258634790785
          ],
          [
            8.158551983610923,
            -5.780752858258237,
            -1.9060080710251897,
            1.9720639042573862
          ],
          [
            3.135713957013826,
            4.405254439887313,
            -3.5934408843648953,
            0.06304079273446661
          ],
          [
            5.488029271365313,
            -6.544688750264581,
            -3.2839840663437827,
            -2.1800778787169364
          ],
          [
            -3.206809759881675,
            1.1596616874223884,
            4.510708517096618,
            1.8783066300871085
          ]
        ]
      },
      {
        "inputSize": 5,
        "outputSize": 3,
        "activation": "Tanh",
        "bias": [
          0.6917146687442997,
          -1.916099947636235,
          -3.0078095070006174
        ],
        "weight": [
          [
            -1.4210405094769416,
            3.560513712680685,
            2.9552765944630774,
            1.7724539609948575,
            -3.025233004043056
          ],
          [
            -5.587512133006043,
            5.653242149842737,
            0.506251901215028,
            1.5323326511248379,
            7.3737231481464525
          ],
          [
            -3.256095221478555,
            5.033186111036629,
            -3.8179957304571337,
            3.5430325624346084,
            -2.1844691568297314
          ]
        ]
      },
      {
        "inputSize": 3,
        "outputSize": 1,
        "activation": "Tanh",
        "bias": [
          2.0883173608929395
        ],
        "weight": [
          [
            -0.5549345974010582,
            -4.496580797564703,
            -5.225299471543597
          ]
        ]
      }
    ]
  },
  {
    "layers": [
      {
        "inputSize": 2,
        "outputSize": 5,
        "activation": "Tanh",
        "bias": [
          3.291787627698835,
          -3.4773350330264097,
          1.411107550285121,
          -7.746618727266175,
          2.5819552044107272
        ],
        "weight": [
          [
            -0.9671591629225196,
            0.0867963121048021
          ],
          [
            -0.7392027016120924,
            1.7916805096489412
          ],
          [
            3.4693661580999877,
            -0.32314079167058674
          ],
          [
            -0.8840935047513981,
            -0.8924003521372501
          ],
          [
            3.88235342001799,
            0.8924568570310225
          ]
        ]
      },
      {
        "inputSize": 5,
        "outputSize": 4,
        "activation": "Tanh",
        "bias": [
          3.687941445363604,
          -0.9096611474071419,
          2.641385088721697,
          -2.9512358532094582
        ],
        "weight": [
          [
            3.7640515766640426,
            -1.3421863587278489,
            2.8149564699889105,
            5.458927750425904,
            1.9949864448810453
          ],
          [
            0.507878477929963,
            -4.815436083805061,
            2.2033560775955556,
            2.9345170385818644,
            0.7776495328846793
          ],
          [
            -3.4777603104926693,
            1.5044795617716564,
            2.4154897584442323,
            -0.18682741675416992,
            -3.819793282898278
          ],
          [
            -2.622978967232658,
            -0.366357400414139,
            -4.888933195906257,
            -1.383954895683405,
            4.878863214785529
          ]
        ]
      },
      {
        "inputSize": 4,
        "outputSize": 5,
        "activation": "Tanh",
        "bias": [
          1.8618639036053484,
          3.7418931159086286,
          1.8895592625120554,
          -2.49944510225551,
          -5.541796218579798
        ],
        "weight": [
          [
            1.8116925512802713,
            -2.141619768992367,
            -4.608672799482788,
            4.116258634790785
          ],
          [
            8.158551983610923,
            -5.780752858258237,
            -1.9060080710251897,
            1.9720639042573862
          ],
          [
            3.135713957013826,
            4.405254439887313,
            -3.5934408843648953,
            0.06304079273446661
          ],
          [
            5.488029271365313,
            -6.544688750264581,
            -3.2839840663437827,
            -2.1800778787169364
          ],
          [
            -3.206809759881675,
            1.1596616874223884,
            4.510708517096618,
            1.8783066300871085
          ]
        ]
      },
      {
        "inputSize": 5,
        "outputSize": 3,
        "activation": "Tanh",
        "bias": [
          0.6917146687442997,
          -1.916099947636235,
          -3.0078095070006174
        ],
        "weight": [
          [
            -1.4210405094769416,
            3.560513712680685,
            2.9552765944630774,
            1.7724539609948575,
            -3.025233004043056
          ],
          [
            -5.587512133006043,
            5.653242149842737,
            0.506251901215028,
            1.5323326511248379,
            7.3737231481464525
          ],
          [
            -3.256095221478555,
            5.033186111036629,
            -3.8179957304571337,
            3.5430325624346084,
            -2.1844691568297314
          ]
        ]
      },
      {
        "inputSize": 3,
        "outputSize": 1,
        "activation": "Tanh",
        "bias": [
          2.0883173608929395
        ],
        "weight": [
          [
            -0.5549345974010582,
            -4.496580797564703,
            -5.225299471543597
          ]
        ]
      }
    ]
  },
  {
    "layers": [
      {
        "inputSize": 2,
        "outputSize": 5,
        "activation": "Tanh",
        "bias": [
          3.291787627698835,
          -3.4773350330264097,
          1.411107550285121,
          -7.746618727266175,
          2.5819552044107272
        ],
        "weight": [
          [
            -0.9671591629225196,
            0.0867963121048021
          ],
          [
            -0.7392027016120924,
            1.7916805096489412
          ],
          [
            3.4693661580999877,
            -0.32314079167058674
          ],
          [
            -0.8840935047513981,
            -0.8924003521372501
          ],
          [
            3.88235342001799,
            0.8924568570310225
          ]
        ]
      },
      {
        "inputSize": 5,
        "outputSize": 4,
        "activation": "Tanh",
        "bias": [
          3.687941445363604,
          -0.9096611474071419,
          2.641385088721697,
          -2.9512358532094582
        ],
        "weight": [
          [
            3.7640515766640426,
            -1.3421863587278489,
            2.8149564699889105,
            5.458927750425904,
            1.9949864448810453
          ],
          [
            0.507878477929963,
            -4.815436083805061,
            2.2033560775955556,
            2.9345170385818644,
            0.7776495328846793
          ],
          [
            -3.4777603104926693,
            1.5044795617716564,
            2.4154897584442323,
            -0.18682741675416992,
            -3.819793282898278
          ],
          [
            -2.622978967232658,
            -0.366357400414139,
            -4.888933195906257,
            -1.383954895683405,
            4.878863214785529
          ]
        ]
      },
      {
        "inputSize": 4,
        "outputSize": 5,
        "activation": "Tanh",
        "bias": [
          1.8618639036053484,
          3.7418931159086286,
          1.8895592625120554,
          -2.49944510225551,
          -5.541796218579798
        ],
        "weight": [
          [
            1.8116925512802713,
            -2.141619768992367,
            -4.608672799482788,
            4.116258634790785
          ],
          [
            8.158551983610923,
            -5.780752858258237,
            -1.9060080710251897,
            1.9720639042573862
          ],
          [
            3.135713957013826,
            4.405254439887313,
            -3.5934408843648953,
            0.06304079273446661
          ],
          [
            5.488029271365313,
            -6.544688750264581,
            -3.2839840663437827,
            -2.1800778787169364
          ],
          [
            -3.206809759881675,
            1.1596616874223884,
            4.510708517096618,
            1.8783066300871085
          ]
        ]
      },
      {
        "inputSize": 5,
        "outputSize": 3,
        "activation": "Tanh",
        "bias": [
          0.6917146687442997,
          -1.916099947636235,
          -3.0078095070006174
        ],
        "weight": [
          [
            -1.4210405094769416,
            3.560513712680685,
            2.9552765944630774,
            1.7724539609948575,
            -3.025233004043056
          ],
          [
            -5.587512133006043,
            5.653242149842737,
            0.506251901215028,
            1.5323326511248379,
            7.3737231481464525
          ],
          [
            -3.256095221478555,
            5.033186111036629,
            -3.8179957304571337,
            3.5430325624346084,
            -2.1844691568297314
          ]
        ]
      },
      {
        "inputSize": 3,
        "outputSize": 1,
        "activation": "Tanh",
        "bias": [
          2.0883173608929395
        ],
        "weight": [
          [
            -0.5549345974010582,
            -4.496580797564703,
            -5.225299471543597
          ]
        ]
      }
    ]
  },
  {
    "layers": [
      {
        "inputSize": 2,
        "outputSize": 5,
        "activation": "Tanh",
        "bias": [
          3.291787627698835,
          -3.4773350330264097,
          1.411107550285121,
          -7.746618727266175,
          2.5819552044107272
        ],
        "weight": [
          [
            -0.9671591629225196,
            0.0867963121048021
          ],
          [
            -0.7392027016120924,
            1.7916805096489412
          ],
          [
            3.4693661580999877,
            -0.32314079167058674
          ],
          [
            -0.8840935047513981,
            -0.8924003521372501
          ],
          [
            3.88235342001799,
            0.8924568570310225
          ]
        ]
      },
      {
        "inputSize": 5,
        "outputSize": 4,
        "activation": "Tanh",
        "bias": [
          3.687941445363604,
          -0.9096611474071419,
          2.641385088721697,
          -2.9512358532094582
        ],
        "weight": [
          [
            3.7640515766640426,
            -1.3421863587278489,
            2.8149564699889105,
            5.458927750425904,
            1.9949864448810453
          ],
          [
            0.507878477929963,
            -4.815436083805061,
            2.2033560775955556,
            2.9345170385818644,
            0.7776495328846793
          ],
          [
            -3.4777603104926693,
            1.5044795617716564,
            2.4154897584442323,
            -0.18682741675416992,
            -3.819793282898278
          ],
          [
            -2.622978967232658,
            -0.366357400414139,
            -4.888933195906257,
            -1.383954895683405,
            4.878863214785529
          ]
        ]
      },
      {
        "inputSize": 4,
        "outputSize": 5,
        "activation": "Tanh",
        "bias": [
          1.8618639036053484,
          3.7418931159086286,
          1.8895592625120554,
          -2.49944510225551,
          -5.541796218579798
        ],
        "weight": [
          [
            1.8116925512802713,
            -2.141619768992367,
            -4.608672799482788,
            4.116258634790785
          ],
          [
            8.158551983610923,
            -5.780752858258237,
            -1.9060080710251897,
            1.9720639042573862
          ],
          [
            3.135713957013826,
            4.405254439887313,
            -3.5934408843648953,
            0.06304079273446661
          ],
          [
            5.488029271365313,
            -6.544688750264581,
            -3.2839840663437827,
            -2.1800778787169364
          ],
          [
            -3.206809759881675,
            1.1596616874223884,
            4.510708517096618,
            1.8783066300871085
          ]
        ]
      },
      {
        "inputSize": 5,
        "outputSize": 3,
        "activation": "Tanh",
        "bias": [
          0.6917146687442997,
          -1.916099947636235,
          -3.0078095070006174
        ],
        "weight": [
          [
            -1.4210405094769416,
            3.560513712680685,
            2.9552765944630774,
            1.7724539609948575,
            -3.025233004043056
          ],
          [
            -5.587512133006043,
            5.653242149842737,
            0.506251901215028,
            1.5323326511248379,
            7.3737231481464525
          ],
          [
            -3.256095221478555,
            5.033186111036629,
            -3.8179957304571337,
            3.5430325624346084,
            -2.1844691568297314
          ]
        ]
      },
      {
        "inputSize": 3,
        "outputSize": 1,
        "activation": "Tanh",
        "bias": [
          2.0883173608929395
        ],
        "weight": [
          [
            -0.5549345974010582,
            -4.496580797564703,
            -5.225299471543597
          ]
        ]
      }
    ]
  },
  {
    "layers": [
      {
        "inputSize": 2,
        "outputSize": 5,
        "activation": "Tanh",
        "bias": [
          3.291787627698835,
          -3.4773350330264097,
          1.411107550285121,
          -7.746618727266175,
          2.5819552044107272
        ],
        "weight": [
          [
            -0.9671591629225196,
            0.0867963121048021
          ],
          [
            -0.7392027016120924,
            1.7916805096489412
          ],
          [
            3.4693661580999877,
            -0.32314079167058674
          ],
          [
            -0.8840935047513981,
            -0.8924003521372501
          ],
          [
            3.88235342001799,
            0.8924568570310225
          ]
        ]
      },
      {
        "inputSize": 5,
        "outputSize": 4,
        "activation": "Tanh",
        "bias": [
          3.687941445363604,
          -0.9096611474071419,
          2.641385088721697,
          -2.9512358532094582
        ],
        "weight": [
          [
            3.7640515766640426,
            -1.3421863587278489,
            2.8149564699889105,
            5.458927750425904,
            1.9949864448810453
          ],
          [
            0.507878477929963,
            -4.815436083805061,
            2.2033560775955556,
            2.9345170385818644,
