[
  {
    "bias": [
      -67.520386,
      -62.31878,
      -40.760857,
      46.033867,
      -1.3402619,
      7.7036276,
      57.185673,
      -11.843126,
      29.158592,
      -11.782976
    ],
    "weight": [
      [
        53.01806,
        32.151417
      ],
      [
        -30.469093,
        68.54488
      ],
      [
        -35.065517,
        18.083376
      ],
      [
        14.482537,
        23.784178
      ],
      [
        28.574884,
        -25.02547
      ],
      [
        -3.976709,
        11.537214
      ],
      [
        3.3550975,
        8.6996355
      ],
      [
        -24.4024,
        -27.702728
      ],
      [
        29.81829,
        -15.396441
      ],
      [
        -43.971985,
        -44.29072
      ]
    ],
    "output": 10,
    "input": 2,
    "activation": "Tanh"
  },
  {
    "bias": [
      6.205853,
      -21.218756,
      25.972296,
      -16.428186,
      1.5402715,
      55.021336,
      -1.2826151
    ],
    "weight": [
      [
        12.155557,
        -40.930927,
        -3.1248505,
        -43.579166,
        10.735698,
        16.36911,
        25.182903,
        -63.416767,
        -15.761568,
        45.807167
      ],
      [
        1.5721972,
        -10.959733,
        10.501457,
        -45.86886,
        -22.276636,
        -38.306686,
        -6.941489,
        19.658686,
        -80.31854,
        77.424484
      ],
      [
        19.655432,
        -13.222911,
        -3.602498,
        5.147489,
        36.97689,
        16.868841,
        89.93132,
        -6.9923754,
        -31.270432,
        33.725803
      ],
      [
        24.387985,
        -18.028864,
        -35.066853,
        -9.420714,
        3.535285,
        63.944233,
        -22.905603,
        -67.613785,
        -44.43004,
        28.893661
      ],
      [
        -38.867447,
        76.01456,
        15.497723,
        7.5703845,
        -53.881317,
        1.7285635,
        20.949772,
        -15.396467,
        21.3352,
        68.78549
      ],
      [
        9.784566,
        16.914822,
        -52.803814,
        -29.765842,
        33.791195,
        13.860762,
        -35.200916,
        -3.33997,
        38.985138,
        -2.101712
      ],
      [
        -22.58938,
        67.54848,
        -19.358967,
        -42.32318,
        -1.7841645,
        11.102919,
        -10.4933815,
        -54.636116,
        -60.854404,
        54.217667
      ]
    ],
    "output": 7,
    "input": 10,
    "activation": "Tanh"
  },
  {
    "bias": [
      -33.037796,
      -46.360832,
      32.71741
    ],
    "weight": [
      [
        46.93142,
        13.770699,
        46.021397,
        -3.3035417,
        1.4414959,
        13.906791,
        52.484016
      ],
      [
        61.880627,
        17.453724,
        0.23902214,
        61.992428,
        22.589556,
        1.2268662,
        15.647814
      ],
      [
        3.9243147,
        17.839363,
        34.533546,
        -28.931114,
        23.031025,
        -12.974571,
        -12.282202
      ]
    ],
    "output": 3,
    "input": 7,
    "activation": "Tanh"
  },
  {
    "bias": [
      10.622948
    ],
    "weight": [
      [
        -42.30712,
        -31.26095,
        -18.03893
      ]
    ],
    "output": 1,
    "input": 3,
    "activation": "Binary"
  }
]